<?xml version="1.0"?>
<opencv_storage>
<cascade>
  <stageType>BOOST</stageType>
  <featureType>HAAR</featureType>
  <height>32</height>
  <width>32</width>
  <stageParams>
    <boostType>GAB</boostType>
    <minHitRate>9.9500000476837158e-01</minHitRate>
    <maxFalseAlarm>4.0000000596046448e-01</maxFalseAlarm>
    <weightTrimRate>9.4999998807907104e-01</weightTrimRate>
    <maxDepth>1</maxDepth>
    <maxWeakCount>100</maxWeakCount></stageParams>
  <featureParams>
    <maxCatCount>0</maxCatCount>
    <featSize>1</featSize>
    <mode>BASIC</mode></featureParams>
  <stageNum>9</stageNum>
  <stages>
    <!-- stage 0 -->
    <_>
      <maxWeakCount>2</maxWeakCount>
      <stageThreshold>-1.6850207746028900e-01</stageThreshold>
      <weakClassifiers>
        <_>
          <internalNodes>
            0 -1 20 6.3120290637016296e-02</internalNodes>
          <leafValues>
            -9.8199999332427979e-01 8.0645161867141724e-01</leafValues></_>
        <_>
          <internalNodes>
            0 -1 10 5.9662111103534698e-02</internalNodes>
          <leafValues>
            -9.7495371103286743e-01 8.6433047056198120e-01</leafValues></_></weakClassifiers></_>
    <!-- stage 1 -->
    <_>
      <maxWeakCount>2</maxWeakCount>
      <stageThreshold>-1.9149559736251831e-01</stageThreshold>
      <weakClassifiers>
        <_>
          <internalNodes>
            0 -1 12 -3.5554938018321991e-02</internalNodes>
          <leafValues>
            8.0000001192092896e-01 -9.7607177495956421e-01</leafValues></_>
        <_>
          <internalNodes>
            0 -1 22 -5.1068045198917389e-02</internalNodes>
          <leafValues>
            7.8457617759704590e-01 -9.8611074686050415e-01</leafValues></_></weakClassifiers></_>
    <!-- stage 2 -->
    <_>
      <maxWeakCount>3</maxWeakCount>
      <stageThreshold>-1.6124886274337769e+00</stageThreshold>
      <weakClassifiers>
        <_>
          <internalNodes>
            0 -1 26 5.8542311191558838e-02</internalNodes>
          <leafValues>
            -9.6180903911590576e-01 5.1020407676696777e-01</leafValues></_>
        <_>
          <internalNodes>
            0 -1 21 -2.8243910521268845e-02</internalNodes>
          <leafValues>
            3.7070718407630920e-01 -9.6916043758392334e-01</leafValues></_>
        <_>
          <internalNodes>
            0 -1 3 -1.8485601991415024e-02</internalNodes>
          <leafValues>
            3.1848087906837463e-01 -9.7291582822799683e-01</leafValues></_></weakClassifiers></_>
    <!-- stage 3 -->
    <_>
      <maxWeakCount>3</maxWeakCount>
      <stageThreshold>-1.3868856430053711e+00</stageThreshold>
      <weakClassifiers>
        <_>
          <internalNodes>
            0 -1 2 -1.4298467338085175e-01</internalNodes>
          <leafValues>
            6.1290323734283447e-01 -9.1658586263656616e-01</leafValues></_>
        <_>
          <internalNodes>
            0 -1 25 9.6837535500526428e-02</internalNodes>
          <leafValues>
            -9.2848658561706543e-01 5.5971205234527588e-01</leafValues></_>
        <_>
          <internalNodes>
            0 -1 7 1.6251366585493088e-02</internalNodes>
          <leafValues>
            -9.1938894987106323e-01 4.5818677544593811e-01</leafValues></_></weakClassifiers></_>
    <!-- stage 4 -->
    <_>
      <maxWeakCount>3</maxWeakCount>
      <stageThreshold>-1.2455475330352783e+00</stageThreshold>
      <weakClassifiers>
        <_>
          <internalNodes>
            0 -1 14 -1.3821111619472504e-01</internalNodes>
          <leafValues>
            6.6666668653488159e-01 -9.1674733161926270e-01</leafValues></_>
        <_>
          <internalNodes>
            0 -1 11 -1.7560063302516937e-01</internalNodes>
          <leafValues>
            6.6203480958938599e-01 -8.3665293455123901e-01</leafValues></_>
        <_>
          <internalNodes>
            0 -1 18 -1.3469174504280090e-02</internalNodes>
          <leafValues>
            5.0785279273986816e-01 -9.3883323669433594e-01</leafValues></_></weakClassifiers></_>
    <!-- stage 5 -->
    <_>
      <maxWeakCount>4</maxWeakCount>
      <stageThreshold>-2.1927807331085205e+00</stageThreshold>
      <weakClassifiers>
        <_>
          <internalNodes>
            0 -1 16 -1.0958881676197052e-01</internalNodes>
          <leafValues>
            6.9999998807907104e-01 -9.1868346929550171e-01</leafValues></_>
        <_>
          <internalNodes>
            0 -1 15 -1.7258723080158234e-01</internalNodes>
          <leafValues>
            7.7481693029403687e-01 -8.2160830497741699e-01</leafValues></_>
        <_>
          <internalNodes>
            0 -1 9 1.2773983180522919e-02</internalNodes>
          <leafValues>
            -9.0624868869781494e-01 5.1495426893234253e-01</leafValues></_>
        <_>
          <internalNodes>
            0 -1 5 -3.0239429324865341e-02</internalNodes>
          <leafValues>
            4.5375978946685791e-01 -9.5838338136672974e-01</leafValues></_></weakClassifiers></_>
    <!-- stage 6 -->
    <_>
      <maxWeakCount>3</maxWeakCount>
      <stageThreshold>-1.1872912645339966e+00</stageThreshold>
      <weakClassifiers>
        <_>
          <internalNodes>
            0 -1 13 -8.2311287522315979e-02</internalNodes>
          <leafValues>
            4.7945204377174377e-01 -9.2352938652038574e-01</leafValues></_>
        <_>
          <internalNodes>
            0 -1 24 -4.3592393398284912e-02</internalNodes>
          <leafValues>
            3.9673840999603271e-01 -8.8016140460968018e-01</leafValues></_>
        <_>
          <internalNodes>
            0 -1 1 -1.6763058304786682e-01</internalNodes>
          <leafValues>
            8.5437673330307007e-01 -6.6050022840499878e-01</leafValues></_></weakClassifiers></_>
    <!-- stage 7 -->
    <_>
      <maxWeakCount>3</maxWeakCount>
      <stageThreshold>-1.4344897270202637e+00</stageThreshold>
      <weakClassifiers>
        <_>
          <internalNodes>
            0 -1 6 4.1056416928768158e-02</internalNodes>
          <leafValues>
            -9.1423004865646362e-01 4.6268656849861145e-01</leafValues></_>
        <_>
          <internalNodes>
            0 -1 17 9.8503232002258301e-02</internalNodes>
          <leafValues>
            -8.4541571140289307e-01 3.8890081644058228e-01</leafValues></_>
        <_>
          <internalNodes>
            0 -1 19 -5.2555248141288757e-02</internalNodes>
          <leafValues>
            4.4016480445861816e-01 -9.0916055440902710e-01</leafValues></_></weakClassifiers></_>
    <!-- stage 8 -->
    <_>
      <maxWeakCount>4</maxWeakCount>
      <stageThreshold>-1.5388900041580200e+00</stageThreshold>
      <weakClassifiers>
        <_>
          <internalNodes>
            0 -1 8 1.0793925821781158e-01</internalNodes>
          <leafValues>
            -9.3686354160308838e-01 1.1711711436510086e-01</leafValues></_>
        <_>
          <internalNodes>
            0 -1 23 1.1883085593581200e-02</internalNodes>
          <leafValues>
            -9.5108205080032349e-01 3.5799425095319748e-02</leafValues></_>
        <_>
          <internalNodes>
            0 -1 0 -6.3412385061383247e-03</internalNodes>
          <leafValues>
            2.5092500448226929e-01 -9.4014346599578857e-01</leafValues></_>
        <_>
          <internalNodes>
            0 -1 4 -3.4035541117191315e-02</internalNodes>
          <leafValues>
            3.2916954159736633e-01 -9.5585012435913086e-01</leafValues></_></weakClassifiers></_></stages>
  <features>
    <_>
      <rects>
        <_>
          0 3 10 4 -1.</_>
        <_>
          5 3 5 4 2.</_></rects>
      <tilted>0</tilted></_>
    <_>
      <rects>
        <_>
          0 6 10 22 -1.</_>
        <_>
          5 6 5 22 2.</_></rects>
      <tilted>0</tilted></_>
    <_>
      <rects>
        <_>
          0 7 9 19 -1.</_>
        <_>
          3 7 3 19 3.</_></rects>
      <tilted>0</tilted></_>
    <_>
      <rects>
        <_>
          0 21 8 8 -1.</_>
        <_>
          4 21 4 8 2.</_></rects>
      <tilted>0</tilted></_>
    <_>
      <rects>
        <_>
          1 16 18 14 -1.</_>
        <_>
          1 16 9 7 2.</_>
        <_>
          10 23 9 7 2.</_></rects>
      <tilted>0</tilted></_>
    <_>
      <rects>
        <_>
          2 13 12 16 -1.</_>
        <_>
          2 13 6 8 2.</_>
        <_>
          8 21 6 8 2.</_></rects>
      <tilted>0</tilted></_>
    <_>
      <rects>
        <_>
          3 1 8 12 -1.</_>
        <_>
          3 1 4 6 2.</_>
        <_>
          7 7 4 6 2.</_></rects>
      <tilted>0</tilted></_>
    <_>
      <rects>
        <_>
          3 21 27 1 -1.</_>
        <_>
          12 21 9 1 3.</_></rects>
      <tilted>0</tilted></_>
    <_>
      <rects>
        <_>
          4 7 8 16 -1.</_>
        <_>
          8 7 4 16 2.</_></rects>
      <tilted>0</tilted></_>
    <_>
      <rects>
        <_>
          4 10 24 1 -1.</_>
        <_>
          12 10 8 1 3.</_></rects>
      <tilted>0</tilted></_>
    <_>
      <rects>
        <_>
          5 8 8 15 -1.</_>
        <_>
          9 8 4 15 2.</_></rects>
      <tilted>0</tilted></_>
    <_>
      <rects>
        <_>
          7 1 21 12 -1.</_>
        <_>
          7 5 21 4 3.</_></rects>
      <tilted>0</tilted></_>
    <_>
      <rects>
        <_>
          7 3 15 6 -1.</_>
        <_>
          7 5 15 2 3.</_></rects>
      <tilted>0</tilted></_>
    <_>
      <rects>
        <_>
          7 22 18 6 -1.</_>
        <_>
          7 25 18 3 2.</_></rects>
      <tilted>0</tilted></_>
    <_>
      <rects>
        <_>
          8 0 17 9 -1.</_>
        <_>
          8 3 17 3 3.</_></rects>
      <tilted>0</tilted></_>
    <_>
      <rects>
        <_>
          8 19 18 12 -1.</_>
        <_>
          8 23 18 4 3.</_></rects>
      <tilted>0</tilted></_>
    <_>
      <rects>
        <_>
          8 23 13 9 -1.</_>
        <_>
          8 26 13 3 3.</_></rects>
      <tilted>0</tilted></_>
    <_>
      <rects>
        <_>
          8 24 20 8 -1.</_>
        <_>
          8 28 20 4 2.</_></rects>
      <tilted>0</tilted></_>
    <_>
      <rects>
        <_>
          11 12 9 7 -1.</_>
        <_>
          14 12 3 7 3.</_></rects>
      <tilted>0</tilted></_>
    <_>
      <rects>
        <_>
          14 2 18 12 -1.</_>
        <_>
          14 2 9 6 2.</_>
        <_>
          23 8 9 6 2.</_></rects>
      <tilted>0</tilted></_>
    <_>
      <rects>
        <_>
          16 13 12 9 -1.</_>
        <_>
          20 13 4 9 3.</_></rects>
      <tilted>0</tilted></_>
    <_>
      <rects>
        <_>
          17 3 12 10 -1.</_>
        <_>
          17 3 6 5 2.</_>
        <_>
          23 8 6 5 2.</_></rects>
      <tilted>0</tilted></_>
    <_>
      <rects>
        <_>
          17 20 8 12 -1.</_>
        <_>
          17 24 8 4 3.</_></rects>
      <tilted>0</tilted></_>
    <_>
      <rects>
        <_>
          18 25 14 7 -1.</_>
        <_>
          25 25 7 7 2.</_></rects>
      <tilted>0</tilted></_>
    <_>
      <rects>
        <_>
          23 9 6 14 -1.</_>
        <_>
          25 9 2 14 3.</_></rects>
      <tilted>0</tilted></_>
    <_>
      <rects>
        <_>
          24 0 8 31 -1.</_>
        <_>
          28 0 4 31 2.</_></rects>
      <tilted>0</tilted></_>
    <_>
      <rects>
        <_>
          26 12 6 14 -1.</_>
        <_>
          29 12 3 14 2.</_></rects>
      <tilted>0</tilted></_></features></cascade>
</opencv_storage>
